<?xml version="1.0"?>
<opencv_storage>
<!-- Automatically converted from haarcascade, window size = 20x20 -->
<haarcascade type_id="opencv-haar-classifier">
  <size>
    20 20</size>
  <stages>
    <_>
      <!-- stage 0 -->
      <trees>
        <_>
          <!-- tree 0 -->
          <_>
            <!-- root node -->
            <feature>
              <rects>
                <_>
                  4 0 12 6 -1.</_>
                <_>
                  4 3 12 3 2.</_></rects>
              <tilted>0</tilted></feature>
            <threshold>-8.3110786974430084e-002</threshold>
            <left_val>9.1677212715148926e-001</left_val>
            <right_val>-9.5907151699066162e-001</right_val></_></_>
        <_>
          <!-- tree 1 -->
          <_>
            <!-- root node -->
            <feature>
              <rects>
                <_>
                  14 8 6 4 -1.</_>
                <_>
                  14 8 3 4 2.</_></rects>
              <tilted>0</tilted></feature>
            <threshold>-2.5334319099783897e-002</threshold>
            <left_val>7.2369998693466187e-001</left_val>
            <right_val>-6.3917672634124756e-001</right_val></_></_>
        <_>
          <!-- tree 2 -->
          <_>
            <!-- root node -->
            <feature>
              <rects>
                <_>
                  0 5 6 7 -1.</_>
                <_>
                  3 5 3 7 2.</_></rects>
              <tilted>0</tilted></feature>
            <threshold>-3.3160500228404999e-002</threshold>
            <left_val>8.0386257171630859e-001</left_val>
            <right_val>-8.3231568336486816e-001</right_val></_></_></trees>
      <stage_threshold>-7.9438561201095581e-001</stage_threshold>
      <parent>-1</parent>
      <next>-1</next></_>
    <_>
      <!-- stage 1 -->
      <trees>
        <_>
          <!-- tree 0 -->
          <_>
            <!-- root node -->
            <feature>
              <rects>
                <_>
                  8 0 3 4 -1.</_>
                <_>
                  8 2 3 2 2.</_></rects>
              <tilted>0</tilted></feature>
            <threshold>-1.7230900004506111e-002</threshold>
            <left_val>7.6820200681686401e-001</left_val>
            <right_val>-8.4093588590621948e-001</right_val></_></_>
        <_>
          <!-- tree 1 -->
          <_>
            <!-- root node -->
            <feature>
              <rects>
                <_>
                  1 15 18 3 -1.</_>
                <_>
                  7 15 6 3 3.</_></rects>
              <tilted>0</tilted></feature>
            <threshold>-4.4856168329715729e-002</threshold>
            <left_val>6.4010781049728394e-001</left_val>
            <right_val>-7.6349449157714844e-001</right_val></_></_>
        <_>
          <!-- tree 2 -->
          <_>
            <!-- root node -->
            <feature>
              <rects>
                <_>
                  4 1 12 4 -1.</_>
                <_>
                  4 3 12 2 2.</_></rects>
              <tilted>0</tilted></feature>
            <threshold>-6.3474066555500031e-002</threshold>
            <left_val>6.6353571414947510e-001</left_val>
            <right_val>-6.6853672266006470e-001</right_val></_></_></trees>
      <stage_threshold>-9.4089478254318237e-001</stage_threshold>
      <parent>0</parent>
      <next>-1</next></_>
    <_>
      <!-- stage 2 -->
      <trees>
        <_>
          <!-- tree 0 -->
          <_>
            <!-- root node -->
            <feature>
              <rects>
                <_>
                  8 9 3 8 -1.</_>
                <_>
                  8 13 3 4 2.</_></rects>
              <tilted>0</tilted></feature>
            <threshold>1.8312639440409839e-005</threshold>
            <left_val>-9.5418047904968262e-001</left_val>
            <right_val>6.6946130990982056e-001</right_val></_></_>
        <_>
          <!-- tree 1 -->
          <_>
            <!-- root node -->
            <feature>
              <rects>
                <_>
                  8 3 12 14 -1.</_>
                <_>
                  12 3 4 14 3.</_></rects>
              <tilted>0</tilted></feature>
            <threshold>-7.7153578400611877e-002</threshold>
            <left_val>7.0983177423477173e-001</left_val>
            <right_val>-8.5538667440414429e-001</right_val></_></_></trees>
      <stage_threshold>-2.4434879422187805e-001</stage_threshold>
      <parent>1</parent>
      <next>-1</next></_>
    <_>
      <!-- stage 3 -->
      <trees>
        <_>
          <!-- tree 0 -->
          <_>
            <!-- root node -->
            <feature>
              <rects>
                <_>
                  3 1 5 6 -1.</_>
                <_>
                  3 4 5 3 2.</_></rects>
              <tilted>0</tilted></feature>
            <threshold>-2.5726389139890671e-002</threshold>
            <left_val>5.2873498201370239e-001</left_val>
            <right_val>-9.0919077396392822e-001</right_val></_></_>
        <_>
          <!-- tree 1 -->
          <_>
            <!-- root node -->
            <feature>
              <rects>
                <_>
                  8 3 12 13 -1.</_>
                <_>
                  12 3 4 13 3.</_></rects>
              <tilted>0</tilted></feature>
            <threshold>-1.3597400486469269e-001</threshold>
            <left_val>5.0940608978271484e-001</left_val>
            <right_val>-6.3136821985244751e-001</right_val></_></_></trees>
      <stage_threshold>-3.9978471398353577e-001</stage_threshold>
      <parent>2</parent>
      <next>-1</next></_>
    <_>
      <!-- stage 4 -->
      <trees>
        <_>
          <!-- tree 0 -->
          <_>
            <!-- root node -->
            <feature>
              <rects>
                <_>
                  0 3 12 13 -1.</_>
                <_>
                  4 3 4 13 3.</_></rects>
              <tilted>0</tilted></feature>
            <threshold>-1.1852119863033295e-001</threshold>
            <left_val>6.0729748010635376e-001</left_val>
            <right_val>-7.7647989988327026e-001</right_val></_></_>
        <_>
          <!-- tree 1 -->
          <_>
            <!-- root node -->
            <feature>
              <rects>
                <_>
                  6 0 14 4 -1.</_>
                <_>
                  13 0 7 2 2.</_>
                <_>
                  6 2 7 2 2.</_></rects>
              <tilted>0</tilted></feature>
            <threshold>-2.3709859699010849e-002</threshold>
            <left_val>3.9187479019165039e-001</left_val>
            <right_val>-6.0848712921142578e-001</right_val></_></_>
        <_>
          <!-- tree 2 -->
          <_>
            <!-- root node -->
            <feature>
              <rects>
                <_>
                  8 12 1 6 -1.</_>
                <_>
                  8 15 1 3 2.</_></rects>
              <tilted>0</tilted></feature>
            <threshold>4.1829240217339247e-005</threshold>
            <left_val>-6.7304688692092896e-001</left_val>
            <right_val>5.0175881385803223e-001</right_val></_></_>
        <_>
          <!-- tree 3 -->
          <_>
            <!-- root node -->
            <feature>
              <rects>
                <_>
                  1 18 19 2 -1.</_>
                <_>
                  1 19 19 1 2.</_></rects>
              <tilted>0</tilted></feature>
            <threshold>-8.6656317580491304e-004</threshold>
            <left_val>4.4057458639144897e-001</left_val>
            <right_val>-6.9783878326416016e-001</right_val></_></_>
        <_>
          <!-- tree 4 -->
          <_>
            <!-- root node -->
            <feature>
              <rects>
                <_>
                  8 4 3 12 -1.</_>
                <_>
                  8 8 3 4 3.</_></rects>
              <tilted>0</tilted></feature>
            <threshold>-4.1670398786664009e-003</threshold>
            <left_val>-9.9176388978958130e-001</left_val>
            <right_val>3.6426720023155212e-001</right_val></_></_></trees>
      <stage_threshold>-1.2167799472808838e+000</stage_threshold>
      <parent>3</parent>
      <next>-1</next></_>
    <_>
      <!-- stage 5 -->
      <trees>
        <_>
          <!-- tree 0 -->
          <_>
            <!-- root node -->
            <feature>
              <rects>
                <_>
                  2 0 16 18 -1.</_>
                <_>
                  2 6 16 6 3.</_></rects>
              <tilted>0</tilted></feature>
            <threshold>-2.0433759689331055e-001</threshold>
            <left_val>4.2779630422592163e-001</left_val>
            <right_val>-8.9407271146774292e-001</right_val></_></_>
        <_>
          <!-- tree 1 -->
          <_>
            <!-- root node -->
            <feature>
              <rects>
                <_>
                  2 17 18 1 -1.</_>
                <_>
                  8 17 6 1 3.</_></rects>
              <tilted>0</tilted></feature>
            <threshold>-1.0278189554810524e-002</threshold>
            <left_val>3.5581380128860474e-001</left_val>
            <right_val>-7.2560042142868042e-001</right_val></_></_>
        <_>
          <!-- tree 2 -->
          <_>
            <!-- root node -->
            <feature>
              <rects>
                <_>
                  0 0 10 4 -1.</_>
                <_>
                  0 0 5 2 2.</_>
                <_>
                  5 2 5 2 2.</_></rects>
              <tilted>0</tilted></feature>
            <threshold>-2.0162090659141541e-002</threshold>
            <left_val>5.2468621730804443e-001</left_val>
            <right_val>-7.0194417238235474e-001</right_val></_></_>
        <_>
          <!-- tree 3 -->
          <_>
            <!-- root node -->
            <feature>
              <rects>
                <_>
                  7 5 7 12 -1.</_>
                <_>
                  7 11 7 6 2.</_></rects>
              <tilted>0</tilted></feature>
            <threshold>1.0768339969217777e-002</threshold>
            <left_val>2.4284930527210236e-001</left_val>
            <right_val>-8.4786009788513184e-001</right_val></_></_>
        <_>
          <!-- tree 4 -->
          <_>
            <!-- root node -->
            <feature>
              <rects>
                <_>
                  8 8 2 8 -1.</_>
                <_>
                  8 12 2 4 2.</_></rects>
              <tilted>0</tilted></feature>
            <threshold>2.0419560314621776e-005</threshold>
            <left_val>-8.7902188301086426e-001</left_val>
            <right_val>4.4362950325012207e-001</right_val></_></_></trees>
      <stage_threshold>-5.5450659990310669e-001</stage_threshold>
      <parent>4</parent>
      <next>-1</next></_>
    <_>
      <!-- stage 6 -->
      <trees>
        <_>
          <!-- tree 0 -->
          <_>
            <!-- root node -->
            <feature>
              <rects>
                <_>
                  0 13 8 7 -1.</_>
                <_>
                  4 13 4 7 2.</_></rects>
              <tilted>0</tilted></feature>
            <threshold>-4.0308371186256409e-002</threshold>
            <left_val>5.2520000934600830e-001</left_val>
            <right_val>-7.0817279815673828e-001</right_val></_></_>
        <_>
          <!-- tree 1 -->
          <_>
            <!-- root node -->
            <feature>
              <rects>
                <_>
                  9 0 2 20 -1.</_>
                <_>
                  9 10 2 10 2.</_></rects>
              <tilted>0</tilted></feature>
            <threshold>-9.0509448200464249e-003</threshold>
            <left_val>4.8263439536094666e-001</left_val>
            <right_val>-8.0871760845184326e-001</right_val></_></_>
        <_>
          <!-- tree 2 -->
          <_>
            <!-- root node -->
            <feature>
              <rects>
                <_>
                  2 3 12 6 -1.</_>
                <_>
                  2 3 6 3 2.</_>
                <_>
                  8 6 6 3 2.</_></rects>
              <tilted>0</tilted></feature>
            <threshold>7.6067888585384935e-005</threshold>
            <left_val>-8.9522927999496460e-001</left_val>
            <right_val>3.3387809991836548e-001</right_val></_></_>
        <_>
          <!-- tree 3 -->
          <_>
            <!-- root node -->
            <feature>
              <rects>
                <_>
                  0 0 20 3 -1.</_>
                <_>
                  0 0 10 3 2.</_></rects>
              <tilted>0</tilted></feature>
            <threshold>3.8875661790370941e-002</threshold>
            <left_val>5.5104422569274902e-001</left_val>
            <right_val>-8.2316231727600098e-001</right_val></_></_>
        <_>
          <!-- tree 4 -->
          <_>
            <!-- root node -->
            <feature>
              <rects>
                <_>
                  2 16 10 4 -1.</_>
                <_>
                  2 16 5 2 2.</_>
                <_>
                  7 18 5 2 2.</_></rects>
              <tilted>0</tilted></feature>
            <threshold>8.7810028344392776e-004</threshold>
            <left_val>-6.7669951915740967e-001</left_val>
            <right_val>4.8658639192581177e-001</right_val></_></_></trees>
      <stage_threshold>-1.3086669445037842e+000</stage_threshold>
      <parent>5</parent>
      <next>-1</next></_>
    <_>
      <!-- stage 7 -->
      <trees>
        <_>
          <!-- tree 0 -->
          <_>
            <!-- root node -->
            <feature>
              <rects>
                <_>
                  2 3 12 6 -1.</_>
                <_>
                  2 3 6 3 2.</_>
                <_>
                  8 6 6 3 2.</_></rects>
              <tilted>0</tilted></feature>
            <threshold>7.6067888585384935e-005</threshold>
            <left_val>-8.8688510656356812e-001</left_val>
            <right_val>5.1561802625656128e-001</right_val></_></_>
        <_>
          <!-- tree 1 -->
          <_>
            <!-- root node -->
            <feature>
              <rects>
                <_>
                  8 6 4 12 -1.</_>
                <_>
                  10 6 2 6 2.</_>
                <_>
                  8 12 2 6 2.</_></rects>
              <tilted>0</tilted></feature>
            <threshold>8.3020247984677553e-004</threshold>
            <left_val>6.5966862440109253e-001</left_val>
            <right_val>-8.4739732742309570e-001</right_val></_></_>
        <_>
          <!-- tree 2 -->
          <_>
            <!-- root node -->
            <feature>
              <rects>
                <_>
                  1 7 6 1 -1.</_>
                <_>
                  3 7 2 1 3.</_></rects>
              <tilted>0</tilted></feature>
            <threshold>-1.2141870101913810e-003</threshold>
            <left_val>9.2322438955307007e-001</left_val>
            <right_val>-6.4617288112640381e-001</right_val></_></_>
        <_>
          <!-- tree 3 -->
          <_>
            <!-- root node -->
            <feature>
              <rects>
                <_>
                  10 6 4 3 -1.</_>
                <_>
                  10 6 2 3 2.</_></rects>
              <tilted>0</tilted></feature>
            <threshold>-2.0904799384879880e-005</threshold>
            <left_val>6.6195821762084961e-001</left_val>
            <right_val>-6.3011628389358521e-001</right_val></_></_></trees>
      <stage_threshold>-3.1599399447441101e-001</stage_threshold>
      <parent>6</parent>
      <next>-1</next></_>
    <_>
      <!-- stage 8 -->
      <trees>
        <_>
          <!-- tree 0 -->
          <_>
            <!-- root node -->
            <feature>
              <rects>
                <_>
                  3 5 12 12 -1.</_>
                <_>
                  9 5 6 12 2.</_></rects>
              <tilted>0</tilted></feature>
            <threshold>7.8607946634292603e-002</threshold>
            <left_val>1.</left_val>
            <right_val>-1.0000139474868774e+000</right_val></_></_></trees>
      <stage_threshold>1.</stage_threshold>
      <parent>7</parent>
      <next>-1</next></_></stages></haarcascade>
</opencv_storage>
